{"levels":[{"inputs":[0.4787234042553192,0.0,0.0,0.0,0.0],"outputs":[0.0,0.0,0.0,1.0,0.0,0.0],"biases":[0.09772329298583668,0.3778623783887144,0.2575474653559897,-0.219693170410732,-0.006272592094295124,0.030864892403097626],"weights":[[-0.2575742316771569,-0.03507868224822848,-0.2223616077212624,-0.10447881092364528,-0.013451965423911718,-0.2934415272379096],[-0.2910723095619244,-0.15666216188908316,0.02739830330598518,0.32841450425359603,0.13453909997368468,-0.16617513683954943],[0.06886013006095146,0.14841149883714183,-0.35279347167467473,0.026541912638533775,0.2427770416781327,-0.0427097222050046],[0.10959537867429824,0.3705758303484028,-0.39697115742988504,-0.00620942556388762,-0.19558055856867299,-0.15651233063408737],[0.15221181561236488,-0.08661750130016302,7.806647757978753E-4,-0.17575909071413715,-0.15688956756806643,-0.1623124557798157]],"inputCount":5,"outputCount":6},{"inputs":[0.0,0.0,0.0,1.0,0.0,0.0],"outputs":[],"biases":[-0.22224935480703525,-0.14861153119925025,0.038445374261748766,-0.011834419340149758],"weights":[[-0.07574051315988874,0.21598706729399988,-0.42969324873130443,0.020005686242046388],[-0.31287204030468596,-0.17984364909891473,-0.2672667321933604,0.19973706863992058],[0.08020772761696918,-0.31168528149273694,-0.04259708574856356,-0.03589258665785925],[-0.12979347495530322,-0.2567190426233372,-0.15502473999062402,-0.06771134961231744],[0.2207924606978243,0.037706870812464724,0.24933024334199216,-0.11310545564333732],[0.0992283346181826,0.4806557529888331,-0.21411688521629005,-0.10874827629821386]],"inputCount":6,"outputCount":4}]}