{"levels":[{"inputs":[0.6886792452830188,0.0,0.0,0.0,0.0],"outputs":[0.0,0.0,0.0,1.0,1.0,0.0],"biases":[0.13589134301398292,0.4082516228178326,0.2750208025744143,-0.23082615700471526,0.012854937070538162,0.004347515477192259],"weights":[[-0.3126683892534062,0.0408947207321886,-0.22275234454945053,-0.0952466434455607,0.03304370310274546,-0.29878530388721286],[-0.31402163523485793,-0.15836227559625685,0.04812772214554083,0.3459474113269082,0.16097079611162168,-0.1827139669699537],[0.08598635973688648,0.1338085063996738,-0.37515407696005765,0.0024603573697126874,0.28218701399523227,-0.08884152578729895],[0.14953836105702722,0.3516843237293374,-0.3855869759687135,-0.03198741704411964,-0.1526327728320644,-0.19213050073100146],[0.14798819695376325,-0.09269516291738243,-0.011856185409836625,-0.19559806281782705,-0.19027346510022405,-0.18940399600922014]],"inputCount":5,"outputCount":6},{"inputs":[0.0,0.0,0.0,1.0,1.0,0.0],"outputs":[],"biases":[-0.20033480540501344,-0.15879044490535985,0.07634466697786246,0.012679969688351073],"weights":[[-0.07084106464465688,0.2355835208389961,-0.47227048974436925,0.01970154488301055],[-0.35003528208588275,-0.20048531064271277,-0.2961958472378296,0.25893161357097816],[0.1090712255570759,-0.32347108738332164,-0.030935867313451187,-0.04493375885221734],[-0.08876323550568366,-0.33275741535594766,-0.19134515126865353,-0.07453436236308225],[0.2459227960759587,0.01280245665925003,0.32378983087548546,-0.11279151616507163],[0.1273171269437693,0.49345683150784353,-0.22994566882197062,-0.13972981192046896]],"inputCount":6,"outputCount":4}]}